{"learner":{"attributes":{},"feature_names":[],"feature_types":[],"gradient_booster":{"model":{"cats":{"enc":[],"feature_segments":[],"sorted_idx":[]},"gbtree_model_param":{"num_parallel_tree":"1","num_trees":"2"},"iteration_indptr":[0,1,2],"tree_info":[0,0],"trees":[{"base_weights":[-3.562364E-2,5.218306E-1,-3.564854E-1,-3.367609E-2,8.623003E-1,1.521634E-2,-4.994081E-1,1.1598955E0,-3.7961554E-2,1.1497697E-1,-6.5003365E-1,-2.1354003E-2,1.4476178E0,-8.00788E-2,1.7503608E-2,-7.397044E-1,1.0650373E-2,1.6321845E0,8.505437E-3,-4.8740753E-3,-1.1318352E-3,3.7622321E-3,-8.206311E-1,3.6519557E-2,9.502417E-2,-1.597512E-2,-4.4824637E-2],"categories":[],"categories_nodes":[],"categories_segments":[],"categories_sizes":[],"default_left":[0,0,0,0,0,0,0,0,0,0,0,0,0,0,0,0,0,0,0,0,0,0,0,0,0,0,0],"id":0,"left_children":[1,3,5,-1,7,-1,9,11,-1,13,15,-1,17,19,-1,21,-1,23,-1,-1,-1,-1,25,-1,-1,-1,-1],"loss_changes":[5.3731318E0,5.057572E0,1.9464395E0,0E0,5.223669E0,0E0,1.5554128E0,4.2711143E0,0E0,2.1146004E-1,1.1636257E0,0E0,1.3728514E0,7.9228356E-4,0E0,8.531623E-1,0E0,6.3604355E-2,0E0,0E0,0E0,0E0,1.3174868E-1,0E0,0E0,0E0,0E0],"parents":[2147483647,0,0,1,1,2,2,4,4,6,6,7,7,9,9,10,10,12,12,13,13,15,15,17,17,22,22],"right_children":[2,4,6,-1,8,-1,10,12,-1,14,16,-1,18,20,-1,22,-1,24,-1,-1,-1,-1,26,-1,-1,-1,-1],"split_conditions":[-4.3333527E-1,-7.6163536E-1,-8.34462E-1,-3.367609E-2,1.1546828E0,1.521634E-2,-1.3373274E0,-1.3373274E0,-3.7961554E-2,-7.363313E-1,3.0130455E0,-2.1354003E-2,1.075887E0,-8.1939244E-1,1.7503608E-2,-1.4938215E0,1.0650373E-2,-9.1662717E-1,8.505437E-3,-4.8740753E-3,-1.1318352E-3,3.7622321E-3,-8.1939244E-1,3.6519557E-2,9.502417E-2,-1.597512E-2,-4.4824637E-2],"split_indices":[20,10,26,0,14,0,32,20,0,2,32,0,10,2,0,14,0,26,0,0,0,0,32,0,0,0,0],"split_type":[0,0,0,0,0,0,0,0,0,0,0,0,0,0,0,0,0,0,0,0,0,0,0,0,0,0,0],"sum_hessian":[2.8E1,1E1,1.8E1,2E0,8E0,3E0,1.5E1,7E0,1E0,3E0,1.2E1,1E0,6E0,2E0,1E0,1.1E1,1E0,5E0,1E0,1E0,1E0,1E0,1E1,2E0,3E0,2E0,8E0],"tree_param":{"num_deleted":"0","num_feature":"36","num_nodes":"27","size_leaf_vector":"1"}},{"base_weights":[4.905739E-2,5.5749476E-1,-3.127253E-1,-3.2553554E-2,8.6431503E-1,6.796835E-2,-4.7701168E-1,8.11192E-2,3.0765915E-1,-1.0485791E-2,1.6544834E-1,1.7066017E-2,-5.824346E-1,-3.7012514E-2,6.056857E-1,1.0892292E-2,-1.1035393E-3,-6.8221456E-1,1.0384114E-2,5.169011E-2,-1.6703136E-1,-1.8469424E-3,-7.4980754E-1,-2.0820154E-2,8.292801E-3,-4.158365E-2,-1.5442616E-2],"categories":[],"categories_nodes":[],"categories_segments":[],"categories_sizes":[],"default_left":[0,0,0,0,0,0,0,0,0,0,0,0,0,0,0,0,0,0,0,0,0,0,0,0,0,0,0],"id":1,"left_children":[1,3,5,-1,7,9,11,-1,13,-1,15,-1,17,-1,19,-1,-1,21,-1,-1,23,-1,25,-1,-1,-1,-1],"loss_changes":[5.32477E0,5.0124807E0,1.095649E0,0E0,3.7206945E0,1.9710901E-1,1.2340481E0,0E0,2.6344929E0,0E0,5.393569E-2,0E0,1.0088995E0,0E0,2.1575544E0,0E0,0E0,4.0846395E-1,0E0,0E0,3.1810102E-1,0E0,6.802654E-2,0E0,0E0,0E0,0E0],"parents":[2147483647,0,0,1,1,2,2,4,4,5,5,6,6,8,8,10,10,12,12,14,14,17,17,20,20,22,22],"right_children":[2,4,6,-1,8,10,12,-1,14,-1,16,-1,18,-1,20,-1,-1,22,-1,-1,24,-1,26,-1,-1,-1,-1],"split_conditions":[-4.3333527E-1,-7.6163536E-1,-7.363313E-1,-3.2553554E-2,-1.1068572E-1,-1.4938215E0,-1.3373274E0,8.11192E-2,1.560462E-2,-1.0485791E-2,-7.6163536E-1,1.7066017E-2,1.9617164E0,-3.7012514E-2,1.560462E-2,1.0892292E-2,-1.1035393E-3,-1.4938215E0,1.0384114E-2,5.169011E-2,2.795942E-1,-1.8469424E-3,3.5991558E-1,-2.0820154E-2,8.292801E-3,-4.158365E-2,-1.5442616E-2],"split_indices":[20,8,2,0,2,2,32,0,2,0,2,0,32,0,26,0,0,8,0,0,2,0,26,0,0,0,0],"split_type":[0,0,0,0,0,0,0,0,0,0,0,0,0,0,0,0,0,0,0,0,0,0,0,0,0,0,0],"sum_hessian":[2.7E1,1.1E1,1.6E1,2E0,9E0,5E0,1.1E1,3E0,6E0,1E0,4E0,1E0,1E1,1E0,5E0,3E0,1E0,9E0,1E0,3E0,2E0,1E0,8E0,1E0,1E0,6E0,2E0],"tree_param":{"num_deleted":"0","num_feature":"36","num_nodes":"27","size_leaf_vector":"1"}}]},"name":"gbtree"},"learner_model_param":{"base_score":"[1.969811E-2]","boost_from_average":"1","num_class":"0","num_feature":"36","num_target":"1"},"objective":{"name":"reg:squarederror","reg_loss_param":{"scale_pos_weight":"1"}}},"version":[3,1,1]}