{"learner":{"attributes":{"best_iteration":"5","best_score":"0.4303622663590014"},"feature_names":[],"feature_types":[],"gradient_booster":{"model":{"cats":{"enc":[],"feature_segments":[],"sorted_idx":[]},"gbtree_model_param":{"num_parallel_tree":"1","num_trees":"26"},"iteration_indptr":[0,1,2,3,4,5,6,7,8,9,10,11,12,13,14,15,16,17,18,19,20,21,22,23,24,25,26],"tree_info":[0,0,0,0,0,0,0,0,0,0,0,0,0,0,0,0,0,0,0,0,0,0,0,0,0,0],"trees":[{"base_weights":[-3.562364E-2,5.218306E-1,-3.564854E-1,-3.367609E-2,8.623003E-1,1.521634E-2,-4.994081E-1,1.1598955E0,-3.7961554E-2,1.1497697E-1,-6.5003365E-1,-2.1354003E-2,1.4476178E0,-8.00788E-2,1.7503608E-2,-7.397044E-1,1.0650373E-2,1.6321845E0,8.505437E-3,-4.8740753E-3,-1.1318352E-3,3.7622321E-3,-8.206311E-1,3.6519557E-2,9.502417E-2,-1.597512E-2,-4.4824637E-2],"categories":[],"categories_nodes":[],"categories_segments":[],"categories_sizes":[],"default_left":[0,0,0,0,0,0,0,0,0,0,0,0,0,0,0,0,0,0,0,0,0,0,0,0,0,0,0],"id":0,"left_children":[1,3,5,-1,7,-1,9,11,-1,13,15,-1,17,19,-1,21,-1,23,-1,-1,-1,-1,25,-1,-1,-1,-1],"loss_changes":[5.3731318E0,5.057572E0,1.9464395E0,0E0,5.223669E0,0E0,1.5554128E0,4.2711143E0,0E0,2.1146004E-1,1.1636257E0,0E0,1.3728514E0,7.9228356E-4,0E0,8.531623E-1,0E0,6.3604355E-2,0E0,0E0,0E0,0E0,1.3174868E-1,0E0,0E0,0E0,0E0],"parents":[2147483647,0,0,1,1,2,2,4,4,6,6,7,7,9,9,10,10,12,12,13,13,15,15,17,17,22,22],"right_children":[2,4,6,-1,8,-1,10,12,-1,14,16,-1,18,20,-1,22,-1,24,-1,-1,-1,-1,26,-1,-1,-1,-1],"split_conditions":[-4.3333527E-1,-7.6163536E-1,-8.34462E-1,-3.367609E-2,1.1546828E0,1.521634E-2,-1.3373274E0,-1.3373274E0,-3.7961554E-2,-7.363313E-1,3.0130455E0,-2.1354003E-2,1.075887E0,-8.1939244E-1,1.7503608E-2,-1.4938215E0,1.0650373E-2,-9.1662717E-1,8.505437E-3,-4.8740753E-3,-1.1318352E-3,3.7622321E-3,-8.1939244E-1,3.6519557E-2,9.502417E-2,-1.597512E-2,-4.4824637E-2],"split_indices":[20,10,26,0,14,0,32,20,0,2,32,0,10,2,0,14,0,26,0,0,0,0,32,0,0,0,0],"split_type":[0,0,0,0,0,0,0,0,0,0,0,0,0,0,0,0,0,0,0,0,0,0,0,0,0,0,0],"sum_hessian":[2.8E1,1E1,1.8E1,2E0,8E0,3E0,1.5E1,7E0,1E0,3E0,1.2E1,1E0,6E0,2E0,1E0,1.1E1,1E0,5E0,1E0,1E0,1E0,1E0,1E1,2E0,3E0,2E0,8E0],"tree_param":{"num_deleted":"0","num_feature":"36","num_nodes":"27","size_leaf_vector":"1"}},{"base_weights":[6.0702633E-2,8.6431503E-1,-3.6544612E-1,8.11192E-2,3.0765915E-1,1.4645728E-2,-5.071959E-1,-3.7012514E-2,6.056857E-1,1.12102546E-1,-6.587342E-1,5.169011E-2,-1.6703136E-1,-7.807683E-2,1.7066017E-2,3.6681765E-3,-7.25856E-1,-2.0820154E-2,8.292801E-3,-4.7522234E-3,-1.1035393E-3,-1.8469424E-3,-7.8512675E-1,-1.5442616E-2,-4.283243E-2],"categories":[],"categories_nodes":[],"categories_segments":[],"categories_sizes":[],"default_left":[0,0,0,0,0,0,0,0,0,0,0,0,0,0,0,0,0,0,0,0,0,0,0,0,0],"id":1,"left_children":[1,3,5,-1,7,-1,9,-1,11,13,15,-1,17,19,-1,-1,21,-1,-1,-1,-1,-1,23,-1,-1],"loss_changes":[9.904697E0,3.7206945E0,1.9216924E0,0E0,2.6344929E0,0E0,1.5754046E0,0E0,2.1575544E0,2.0101921E-1,6.920676E-1,0E0,3.1810102E-1,7.531643E-4,0E0,0E0,4.6098995E-1,0E0,0E0,0E0,0E0,0E0,1.10126495E-1,0E0,0E0],"parents":[2147483647,0,0,1,1,2,2,4,4,6,6,8,8,9,9,10,10,12,12,13,13,16,16,22,22],"right_children":[2,4,6,-1,8,-1,10,-1,12,14,16,-1,18,20,-1,-1,22,-1,-1,-1,-1,-1,24,-1,-1],"split_conditions":[-4.3333527E-1,-1.1068572E-1,-8.34462E-1,8.11192E-2,1.560462E-2,1.4645728E-2,-1.3373274E0,-3.7012514E-2,1.560462E-2,-7.363313E-1,-1.4938215E0,5.169011E-2,2.795942E-1,-8.1939244E-1,1.7066017E-2,3.6681765E-3,-1.4938215E0,-2.0820154E-2,8.292801E-3,-4.7522234E-3,-1.1035393E-3,-1.8469424E-3,-8.1939244E-1,-1.5442616E-2,-4.283243E-2],"split_indices":[20,2,26,0,2,0,32,0,26,2,14,0,2,2,0,0,8,0,0,0,0,0,32,0,0],"split_type":[0,0,0,0,0,0,0,0,0,0,0,0,0,0,0,0,0,0,0,0,0,0,0,0,0],"sum_hessian":[2.7E1,9E0,1.8E1,3E0,6E0,3E0,1.5E1,1E0,5E0,3E0,1.2E1,3E0,2E0,2E0,1E0,1E0,1.1E1,1E0,1E0,1E0,1E0,1E0,1E1,2E0,8E0],"tree_param":{"num_deleted":"0","num_feature":"36","num_nodes":"25","size_leaf_vector":"1"}},{"base_weights":[4.5063432E-2,5.2096975E-1,-2.9352123E-1,-3.4043755E-2,8.2942617E-1,6.979774E-2,-4.5072058E-1,1.5615447E0,2.9258335E-1,-9.41498E-3,1.5907712E-1,1.6639367E-2,-5.52202E-1,8.8460475E-2,2.3463754E-2,-3.60872E-2,5.8192855E-1,1.0480295E-2,-1.0759508E-3,-6.532419E-1,1.1454925E-2,4.975173E-2,-1.6285558E-1,-4.1738078E-2,-3.0476984E-1,-2.0299649E-2,8.085481E-3,-2.667161E-3,-2.2730326E-2],"categories":[],"categories_nodes":[],"categories_segments":[],"categories_sizes":[],"default_left":[0,0,0,0,0,0,0,0,0,0,0,0,0,0,0,0,0,0,0,0,0,0,0,0,0,0,0,0,0],"id":2,"left_children":[1,3,5,-1,7,9,11,13,15,-1,17,-1,19,-1,-1,-1,21,-1,-1,23,-1,-1,25,-1,27,-1,-1,-1,-1],"loss_changes":[4.6646833E0,5.013338E0,1.0023892E0,0E0,3.473444E0,1.6821079E-1,1.1379032E0,7.705784E-2,2.4744391E0,0E0,5.0137028E-2,0E0,1.0180244E0,0E0,0E0,0E0,2.0080955E0,0E0,0E0,3.781352E-1,0E0,0E0,3.0239478E-1,0E0,1.641145E-1,0E0,0E0,0E0,0E0],"parents":[2147483647,0,0,1,1,2,2,4,4,5,5,6,6,7,7,8,8,10,10,12,12,16,16,19,19,22,22,24,24],"right_children":[2,4,6,-1,8,10,12,14,16,-1,18,-1,20,-1,-1,-1,22,-1,-1,24,-1,-1,26,-1,28,-1,-1,-1,-1],"split_conditions":[-4.3333527E-1,-7.6163536E-1,-7.363313E-1,-3.4043755E-2,-1.1068572E-1,-1.4938215E0,-1.3373274E0,-8.1939244E-1,1.560462E-2,-9.41498E-3,-7.6163536E-1,1.6639367E-2,1.9617164E0,8.8460475E-2,2.3463754E-2,-3.60872E-2,1.560462E-2,1.0480295E-2,-1.0759508E-3,3.5991558E-1,1.1454925E-2,4.975173E-2,2.795942E-1,-4.1738078E-2,1.075887E0,-2.0299649E-2,8.085481E-3,-2.667161E-3,-2.2730326E-2],"split_indices":[20,8,4,0,4,4,32,20,4,0,4,0,32,0,0,0,26,0,0,20,0,0,4,0,20,0,0,0,0],"split_type":[0,0,0,0,0,0,0,0,0,0,0,0,0,0,0,0,0,0,0,0,0,0,0,0,0,0,0,0,0],"sum_hessian":[2.7E1,1.1E1,1.6E1,2E0,9E0,5E0,1.1E1,3E0,6E0,1E0,4E0,1E0,1E1,2E0,1E0,1E0,5E0,3E0,1E0,9E0,1E0,3E0,2E0,5E0,4E0,1E0,1E0,2E0,2E0],"tree_param":{"num_deleted":"0","num_feature":"36","num_nodes":"29","size_leaf_vector":"1"}},{"base_weights":[-1.0251607E-2,7.537471E-1,-2.4232723E-1,-4.2452917E-2,1.3615103E0,5.035895E-1,-4.775035E-1,-2.0968651E-2,2.7207686E-2,8.5511796E-2,7.883344E-3,2.8019834E-2,5.4888437E-3,1.02789044E-1,-6.0041463E-1,-7.925969E-2,1.6223382E-2,-6.7521155E-1,1.1168552E-2,-4.895425E-3,-1.049052E-3,-7.820188E-2,-7.6819634E-1,-9.179606E-3,3.3144646E-3,-1.7340897E-3,-4.158633E-2],"categories":[],"categories_nodes":[],"categories_segments":[],"categories_sizes":[],"default_left":[0,0,0,0,0,0,0,0,0,0,0,0,0,0,0,0,0,0,0,0,0,0,0,0,0,0,0],"id":3,"left_children":[1,3,5,7,9,11,13,-1,-1,-1,-1,-1,-1,15,17,19,-1,21,-1,-1,-1,23,25,-1,-1,-1,-1],"loss_changes":[5.3245115E0,3.4451075E0,4.2751703E0,1.1126188E0,1.4095969E0,7.270968E-2,1.3455553E0,0E0,0E0,0E0,0E0,0E0,0E0,1.8714243E-1,1.0750718E0,1.2062583E-3,0E0,7.171054E-1,0E0,0E0,0E0,5.7854064E-2,5.303588E-1,0E0,0E0,0E0,0E0],"parents":[2147483647,0,0,1,1,2,2,3,3,4,4,5,5,6,6,13,13,14,14,15,15,17,17,21,21,22,22],"right_children":[2,4,6,8,10,12,14,-1,-1,-1,-1,-1,-1,16,18,20,-1,22,-1,-1,-1,24,26,-1,-1,-1,-1],"split_conditions":[-7.634062E-1,-1.3373274E0,-8.34462E-1,2.795942E-1,-1.1068572E-1,2.795942E-1,-1.3373274E0,-2.0968651E-2,2.7207686E-2,8.5511796E-2,7.883344E-3,2.8019834E-2,5.4888437E-3,-7.363313E-1,3.0130455E0,-8.1939244E-1,1.6223382E-2,-7.6163536E-1,1.1168552E-2,-4.895425E-3,-1.049052E-3,-1.4938215E0,-1.4938215E0,-9.179606E-3,3.3144646E-3,-1.7340897E-3,-4.158633E-2],"split_indices":[20,20,26,2,2,8,32,0,0,0,0,0,0,2,32,2,0,2,0,0,0,2,8,0,0,0,0],"split_type":[0,0,0,0,0,0,0,0,0,0,0,0,0,0,0,0,0,0,0,0,0,0,0,0,0,0,0],"sum_hessian":[2.8E1,6E0,2.2E1,3E0,3E0,5E0,1.7E1,2E0,1E0,2E0,1E0,4E0,1E0,3E0,1.4E1,2E0,1E0,1.3E1,1E0,1E0,1E0,2E0,1.1E1,1E0,1E0,1E0,1E1],"tree_param":{"num_deleted":"0","num_feature":"36","num_nodes":"27","size_leaf_vector":"1"}},{"base_weights":[5.3458862E-2,6.135315E-1,-1.8911792E-1,1.0979826E0,6.374079E-3,4.954277E-1,-3.7933028E-1,1.7659042E-2,7.383951E-2,-6.8895005E-2,7.6862606E-3,5.3516226E-3,2.8288418E-2,4.3227404E-1,-6.6230655E-1,-4.7730394E-3,-1.4109741E-3,5.7911307E-2,-3.877051E-2,-7.537965E-1,1.0889338E-2,-2.0269696E-2,2.6527492E-2,-7.624683E-2,-8.816818E-1,-8.950115E-3,3.231603E-3,-1.6907373E-3,-4.86066E-2],"categories":[],"categories_nodes":[],"categories_segments":[],"categories_sizes":[],"default_left":[0,0,0,0,0,0,0,0,0,0,0,0,0,0,0,0,0,0,0,0,0,0,0,0,0,0,0,0,0],"id":4,"left_children":[1,3,5,7,9,11,13,-1,-1,15,-1,-1,-1,17,19,-1,-1,-1,21,23,-1,-1,-1,25,27,-1,-1,-1,-1],"loss_changes":[4.0559874E0,2.6402445E0,2.9223204E0,8.891077E-1,6.604582E-2,7.604444E-2,4.1905985E0,0E0,0E0,1.6284548E-3,0E0,0E0,0E0,1.754684E0,1.2109232E0,0E0,0E0,0E0,1.0499864E0,9.725585E-1,0E0,0E0,0E0,5.499751E-2,7.3402596E-1,0E0,0E0,0E0,0E0],"parents":[2147483647,0,0,1,1,2,2,3,3,4,4,5,5,6,6,9,9,13,13,14,14,18,18,19,19,23,23,24,24],"right_children":[2,4,6,8,10,12,14,-1,-1,16,-1,-1,-1,18,20,-1,-1,-1,22,24,-1,-1,-1,26,28,-1,-1,-1,-1],"split_conditions":[-7.6163536E-1,-9.900422E-2,-9.1662717E-1,1.560462E-2,-6.91815E-2,-9.1662717E-1,-9.1662717E-1,1.7659042E-2,7.383951E-2,-8.1939244E-1,7.6862606E-3,5.3516226E-3,2.8288418E-2,-7.363313E-1,3.0130455E0,-4.7730394E-3,-1.4109741E-3,5.7911307E-2,2.795942E-1,-7.6163536E-1,1.0889338E-2,-2.0269696E-2,2.6527492E-2,-1.4938215E0,-1.4938215E0,-8.950115E-3,3.231603E-3,-1.6907373E-3,-4.86066E-2],"split_indices":[32,26,26,8,4,4,20,0,0,4,0,0,0,14,32,0,0,0,4,4,0,0,0,4,8,0,0,0,0],"split_type":[0,0,0,0,0,0,0,0,0,0,0,0,0,0,0,0,0,0,0,0,0,0,0,0,0,0,0,0,0],"sum_hessian":[2.8E1,8E0,2E1,4E0,4E0,4E0,1.6E1,2E0,2E0,3E0,1E0,1E0,3E0,4E0,1.2E1,1E0,2E0,1E0,3E0,1.1E1,1E0,2E0,1E0,2E0,9E0,1E0,1E0,1E0,8E0],"tree_param":{"num_deleted":"0","num_feature":"36","num_nodes":"29","size_leaf_vector":"1"}},{"base_weights":[-3.9839312E-2,4.2547798E-1,-3.071367E-1,-3.071844E-2,7.248182E-1,1.24575E-2,-4.2701235E-1,9.8625517E-1,-3.416694E-2,9.735055E-2,-5.555077E-1,-1.8761199E-2,1.2343557E0,-7.521687E-2,1.5376321E-2,3.150813E-3,-6.123027E-1,1.3901209E0,7.494104E-3,-4.6537137E-3,-9.875514E-4,-1.6484689E-3,-6.6197217E-1,2.9991552E-2,8.1765406E-2,-1.2651195E-2,-3.623679E-2],"categories":[],"categories_nodes":[],"categories_segments":[],"categories_sizes":[],"default_left":[0,0,0,0,0,0,0,0,0,0,0,0,0,0,0,0,0,0,0,0,0,0,0,0,0,0,0],"id":5,"left_children":[1,3,5,-1,7,-1,9,11,-1,13,15,-1,17,19,-1,-1,21,23,-1,-1,-1,-1,25,-1,-1,-1,-1],"loss_changes":[3.737645E0,3.869254E0,1.3734095E0,0E0,3.9872456E0,0E0,1.1321299E0,3.1654277E0,0E0,1.682092E-1,4.952631E-1,0E0,9.7410965E-1,1.133116E-3,0E0,0E0,3.2347727E-1,1.8170452E-1,0E0,0E0,0E0,0E0,9.8962784E-2,0E0,0E0,0E0,0E0],"parents":[2147483647,0,0,1,1,2,2,4,4,6,6,7,7,9,9,10,10,12,12,13,13,16,16,17,17,22,22],"right_children":[2,4,6,-1,8,-1,10,12,-1,14,16,-1,18,20,-1,-1,22,24,-1,-1,-1,-1,26,-1,-1,-1,-1],"split_conditions":[-4.3333527E-1,-7.6163536E-1,-8.34462E-1,-3.071844E-2,1.1546828E0,1.24575E-2,-1.3373274E0,-1.3373274E0,-3.416694E-2,-7.363313E-1,-1.4938215E0,-1.8761199E-2,1.075887E0,-8.1939244E-1,1.5376321E-2,3.150813E-3,-1.4938215E0,-9.1662717E-1,7.494104E-3,-4.6537137E-3,-9.875514E-4,-1.6484689E-3,-1.3373274E0,2.9991552E-2,8.1765406E-2,-1.2651195E-2,-3.623679E-2],"split_indices":[20,8,26,0,14,0,32,20,0,2,14,0,8,2,0,0,8,26,0,0,0,0,14,0,0,0,0],"split_type":[0,0,0,0,0,0,0,0,0,0,0,0,0,0,0,0,0,0,0,0,0,0,0,0,0,0,0],"sum_hessian":[2.8E1,1E1,1.8E1,2E0,8E0,3E0,1.5E1,7E0,1E0,3E0,1.2E1,1E0,6E0,2E0,1E0,1E0,1.1E1,5E0,1E0,1E0,1E0,1E0,1E1,2E0,3E0,2E0,8E0],"tree_param":{"num_deleted":"0","num_feature":"36","num_nodes":"27","size_leaf_vector":"1"}},{"base_weights":[3.821949E-2,4.6254903E-1,-2.3178968E-1,-2.9694492E-2,7.3322576E-1,1.4564355E-1,-3.7699035E-1,1.3732972E0,2.6272416E-1,-1.365718E-2,1.4201485E-2,9.4916806E-2,-5.143211E-1,7.7740036E-2,2.0719664E-2,-1.7224076E-1,4.500455E-2,-7.333644E-2,1.4991914E-2,3.1066151E-2,-6.389701E-1,2.004989E-2,-3.440329E-2,-4.5373705E-3,-9.6286257E-4,3.0720427E-3,-7.420812E-4,-4.0400952E-2,-2.2565414E-1,-1.3972105E-2,-1.6072572E-3],"categories":[],"categories_nodes":[],"categories_segments":[],"categories_sizes":[],"default_left":[0,0,0,0,0,0,0,0,0,0,0,0,0,0,0,0,0,0,0,0,0,0,0,0,0,0,0,0,0,0,0],"id":6,"left_children":[1,3,5,-1,7,9,11,13,15,-1,-1,17,19,-1,-1,21,-1,23,-1,25,27,-1,-1,-1,-1,-1,-1,-1,29,-1,-1],"loss_changes":[3.5444E0,3.8668969E0,1.096174E0,0E0,2.6507483E0,4.2530692E-1,9.5612085E-1,5.187893E-2,2.0956578E0,0E0,0E0,1.5990387E-1,7.676518E-1,0E0,0E0,1.7543669E0,0E0,1.0771677E-3,0E0,5.0951866E-3,4.4650316E-1,0E0,0E0,0E0,0E0,0E0,0E0,0E0,3.265111E-2,0E0,0E0],"parents":[2147483647,0,0,1,1,2,2,4,4,5,5,6,6,7,7,8,8,11,11,12,12,15,15,17,17,19,19,20,20,28,28],"right_children":[2,4,6,-1,8,10,12,14,16,-1,-1,18,20,-1,-1,22,-1,24,-1,26,28,-1,-1,-1,-1,-1,-1,-1,30,-1,-1],"split_conditions":[-4.3333527E-1,-7.6163536E-1,-7.6163536E-1,-2.9694492E-2,-1.1068572E-1,-1.3373274E0,-1.3373274E0,-8.1939244E-1,3.5991558E-1,-1.365718E-2,1.4201485E-2,-7.363313E-1,-1.3373274E0,7.7740036E-2,2.0719664E-2,-4.4455814E-1,4.500455E-2,-8.1939244E-1,1.4991914E-2,-7.6163536E-1,1.701874E-1,2.004989E-2,-3.440329E-2,-4.5373705E-3,-9.6286257E-4,3.0720427E-3,-7.420812E-4,-4.0400952E-2,-2.5575295E-2,-1.3972105E-2,-1.6072572E-3],"split_indices":[20,8,28,0,4,8,32,20,4,0,0,4,14,0,0,14,0,4,0,4,14,0,0,0,0,0,0,0,4,0,0],"split_type":[0,0,0,0,0,0,0,0,0,0,0,0,0,0,0,0,0,0,0,0,0,0,0,0,0,0,0,0,0,0,0],"sum_hessian":[2.9E1,1.1E1,1.8E1,2E0,9E0,5E0,1.3E1,3E0,6E0,1E0,4E0,3E0,1E1,2E0,1E0,4E0,2E0,2E0,1E0,2E0,8E0,2E0,2E0,1E0,1E0,1E0,1E0,5E0,3E0,2E0,1E0],"tree_param":{"num_deleted":"0","num_feature":"36","num_nodes":"31","size_leaf_vector":"1"}},{"base_weights":[1.3079351E-2,-4.8328623E-1,2.21387E-1,8.801405E-3,-6.0262084E-1,7.414828E-1,-1.4379244E-1,-1.3411103E-1,-3.816013E-2,1.3292472E0,1.229746E-1,3.8634285E-3,-2.9402394E-2,-9.119537E-3,-9.38791E-4,7.514871E-2,2.0201672E-2,-3.3256512E-2,4.35044E-2,1.7673958E-2,-1.964689E-1,3.0289495E-2,-2.9323018E-1,2.9952414E-3,-7.2352926E-4,-4.4239364E-3,-1.6114919E-2],"categories":[],"categories_nodes":[],"categories_segments":[],"categories_sizes":[],"default_left":[0,0,0,0,0,0,0,0,0,0,0,0,0,0,0,0,0,0,0,0,0,0,0,0,0,0,0],"id":7,"left_children":[1,3,5,-1,7,9,11,13,-1,15,17,19,-1,-1,-1,-1,-1,-1,-1,-1,21,23,25,-1,-1,-1,-1],"loss_changes":[2.7953088E0,7.3551047E-1,3.7152567E0,0E0,4.2428493E-1,2.744834E0,7.894349E-1,1.3280515E-2,0E0,3.5686493E-2,3.52274E0,7.698411E-1,0E0,0E0,0E0,0E0,0E0,0E0,0E0,0E0,1.624718E-1,4.843612E-3,1.2422204E-3,0E0,0E0,0E0,0E0],"parents":[2147483647,0,0,1,1,2,2,4,4,5,5,6,6,7,7,9,9,10,10,11,11,20,20,21,21,22,22],"right_children":[2,4,6,-1,8,10,12,14,-1,16,18,20,-1,-1,-1,-1,-1,-1,-1,-1,22,24,26,-1,-1,-1,-1],"split_conditions":[-7.363313E-1,-1.4938215E0,-4.3333527E-1,8.801405E-3,-7.363313E-1,-1.1068572E-1,1.1546828E0,-8.34462E-1,-3.816013E-2,-8.1939244E-1,2.795942E-1,-4.3333527E-1,-2.9402394E-2,-9.119537E-3,-9.38791E-4,7.514871E-2,2.0201672E-2,-3.3256512E-2,4.35044E-2,1.7673958E-2,-1.3373274E0,-7.6163536E-1,-7.6163536E-1,2.9952414E-3,-7.2352926E-4,-4.4239364E-3,-1.6114919E-2],"split_indices":[8,28,20,0,2,2,8,2,0,20,2,28,0,0,0,0,0,0,0,0,14,2,14,0,0,0,0],"split_type":[0,0,0,0,0,0,0,0,0,0,0,0,0,0,0,0,0,0,0,0,0,0,0,0,0,0,0],"sum_hessian":[2.5E1,7E0,1.8E1,1E0,6E0,7E0,1.1E1,2E0,4E0,3E0,4E0,9E0,2E0,1E0,1E0,2E0,1E0,2E0,2E0,3E0,6E0,2E0,4E0,1E0,1E0,1E0,3E0],"tree_param":{"num_deleted":"0","num_feature":"36","num_nodes":"27","size_leaf_vector":"1"}},{"base_weights":[3.1495947E-2,4.3487602E-1,-2.5509563E-1,1.0173419E0,1.647541E-2,4.0579587E-2,-5.224269E-1,5.7178936E-3,6.0724914E-2,4.913028E-2,-4.693356E-1,-2.578493E-2,1.7457668E-1,-1.857303E-2,-3.3186596E-2,-7.207757E-1,1.9696629E-2,1.7041495E-2,-7.6884024E-2,-4.313338E-3,2.9203605E-3,-8.891548E-3,-4.060271E-2,-1.2361747E-2,6.2311266E-2,5.2864174E-3,-6.1307236E-4],"categories":[],"categories_nodes":[],"categories_segments":[],"categories_sizes":[],"default_left":[0,0,0,0,0,0,0,0,0,0,0,0,0,0,0,0,0,0,0,0,0,0,0,0,0,0,0],"id":8,"left_children":[1,3,5,7,9,11,13,-1,-1,-1,15,-1,17,19,-1,21,-1,-1,23,-1,-1,-1,-1,-1,25,-1,-1],"loss_changes":[3.3478842E0,2.9076877E0,1.3649348E0,7.512579E-1,4.2160254E0,7.6088595E-1,6.284461E-1,0E0,0E0,0E0,1.5862985E0,0E0,3.6065367E-1,2.0671839E-2,0E0,1.03387594E-1,0E0,0E0,1.1025371E-1,0E0,0E0,0E0,0E0,0E0,1.100957E-2,0E0,0E0],"parents":[2147483647,0,0,1,1,2,2,3,3,4,4,5,5,6,6,10,10,12,12,13,13,15,15,18,18,24,24],"right_children":[2,4,6,8,10,12,14,-1,-1,-1,16,-1,18,20,-1,22,-1,-1,24,-1,-1,-1,-1,-1,26,-1,-1],"split_conditions":[-4.3333527E-1,3.5991558E-1,-2.3520553E-1,-8.34462E-1,-4.4455814E-1,-9.971853E-2,-7.6163536E-1,5.7178936E-3,6.0724914E-2,4.913028E-2,-7.6163536E-1,-2.578493E-2,3.5991558E-1,-8.1939244E-1,-3.3186596E-2,-8.34462E-1,1.9696629E-2,1.7041495E-2,-9.900422E-2,-4.313338E-3,2.9203605E-3,-8.891548E-3,-4.060271E-2,-1.2361747E-2,-9.1662717E-1,5.2864174E-3,-6.1307236E-4],"split_indices":[20,32,26,14,14,20,2,0,0,0,20,0,14,2,0,2,0,0,32,0,0,0,0,0,2,0,0],"split_type":[0,0,0,0,0,0,0,0,0,0,0,0,0,0,0,0,0,0,0,0,0,0,0,0,0,0,0],"sum_hessian":[2.7E1,1.1E1,1.6E1,4E0,7E0,8E0,8E0,1E0,3E0,2E0,5E0,1E0,7E0,2E0,6E0,4E0,1E0,4E0,3E0,1E0,1E0,1E0,3E0,1E0,2E0,1E0,1E0],"tree_param":{"num_deleted":"0","num_feature":"36","num_nodes":"27","size_leaf_vector":"1"}},{"base_weights":[-6.6125184E-2,6.368728E-1,-1.9688074E-1,-8.66926E-3,4.8237696E-2,1.9190183E-1,-5.044595E-1,5.7385236E-1,-3.0481917E-1,-8.318587E-2,-6.3564116E-1,3.9284993E-2,1.3575181E-2,-7.496193E-2,-3.06062E-2,-7.4439584E-3,2.8473516E-3,-2.6032904E-1,-3.8995456E-2,-1.2052704E-2,6.075348E-2,1.2422372E-4,-1.7438086E-2,5.1542567E-3,-5.977456E-4],"categories":[],"categories_nodes":[],"categories_segments":[],"categories_sizes":[],"default_left":[0,0,0,0,0,0,0,0,0,0,0,0,0,0,0,0,0,0,0,0,0,0,0,0,0],"id":9,"left_children":[1,3,5,-1,-1,7,9,11,13,15,17,-1,-1,19,-1,-1,-1,21,-1,-1,23,-1,-1,-1,-1],"loss_changes":[2.3314898E0,1.2299472E0,2.6080132E0,0E0,0E0,2.0721498E0,6.102841E-1,1.709907E-1,3.0729526E-1,4.53014E-2,2.8427625E-1,0E0,0E0,1.04809925E-1,0E0,0E0,0E0,9.383169E-2,0E0,0E0,1.0465972E-2,0E0,0E0,0E0,0E0],"parents":[2147483647,0,0,1,1,2,2,5,5,6,6,7,7,8,8,9,9,10,10,13,13,17,17,20,20],"right_children":[2,4,6,-1,-1,8,10,12,14,16,18,-1,-1,20,-1,-1,-1,22,-1,-1,24,-1,-1,-1,-1],"split_conditions":[-9.1662717E-1,-8.34462E-1,-2.3520553E-1,-8.66926E-3,4.8237696E-2,3.5991558E-1,-7.6163536E-1,-4.4455814E-1,1.1714858E0,-8.1939244E-1,-4.4455814E-1,3.9284993E-2,1.3575181E-2,-9.900422E-2,-3.06062E-2,-7.4439584E-3,2.8473516E-3,-6.91815E-2,-3.8995456E-2,-1.2052704E-2,-9.1662717E-1,1.2422372E-4,-1.7438086E-2,5.1542567E-3,-5.977456E-4],"split_indices":[20,2,26,0,0,14,2,20,14,2,32,0,0,32,0,0,0,2,0,0,2,0,0,0,0],"split_type":[0,0,0,0,0,0,0,0,0,0,0,0,0,0,0,0,0,0,0,0,0,0,0,0,0],"sum_hessian":[2.3E1,3E0,2E1,1E0,2E0,9E0,1.1E1,5E0,4E0,3E0,8E0,2E0,3E0,3E0,1E0,2E0,1E0,3E0,5E0,1E0,2E0,1E0,2E0,1E0,1E0],"tree_param":{"num_deleted":"0","num_feature":"36","num_nodes":"25","size_leaf_vector":"1"}},{"base_weights":[-8.084748E-2,2.2369683E-2,-1.921674E-1,2.9433754E-1,-3.81189E-1,1.6190793E-2,3.299015E-2,1.12348385E-1,-5.9619194E-1,-3.9870493E-2,6.010899E-3,-4.1271433E-1,7.749826E-1,-5.8280193E-4,-6.482719E-1,-4.0194057E-3,4.3141595E-4,2.7761678E-3,-2.9365068E-2,4.816297E-2,9.960721E-3,-1.3489124E-2,-7.5648266E-1,-8.876193E-5,1.2111813E-4,-4.0438194E-2,-9.76286E-3],"categories":[],"categories_nodes":[],"categories_segments":[],"categories_sizes":[],"default_left":[0,0,0,0,0,0,0,0,0,0,0,0,0,0,0,0,0,0,0,0,0,0,0,0,0,0,0],"id":10,"left_children":[1,-1,3,5,7,9,-1,11,13,15,-1,17,19,-1,21,-1,23,-1,-1,-1,-1,-1,25,-1,-1,-1,-1],"loss_changes":[1.673676E0,0E0,2.227277E0,7.008884E-1,1.8708851E0,3.3952635E-2,0E0,2.4073935E0,3.5775518E-1,6.5664314E-3,0E0,3.596019E-1,1.3331616E-1,0E0,2.4643755E-1,0E0,1.7480268E-5,0E0,0E0,0E0,0E0,0E0,7.681513E-2,0E0,0E0,0E0,0E0],"parents":[2147483647,0,0,2,2,3,3,4,4,5,5,7,7,8,8,9,9,11,11,12,12,14,14,16,16,22,22],"right_children":[2,-1,4,6,8,10,-1,12,14,16,-1,18,20,-1,22,-1,24,-1,-1,-1,-1,-1,26,-1,-1,-1,-1],"split_conditions":[-8.34462E-1,2.2369683E-2,-8.1939244E-1,3.5991558E-1,-7.363313E-1,-6.91815E-2,3.299015E-2,-9.1662717E-1,-1.4938215E0,-8.1939244E-1,6.010899E-3,-7.6163536E-1,-1.1068572E-1,-5.8280193E-4,-4.3333527E-1,-4.0194057E-3,-7.363313E-1,2.7761678E-3,-2.9365068E-2,4.816297E-2,9.960721E-3,-1.3489124E-2,2.795942E-1,-8.876193E-5,1.2111813E-4,-4.0438194E-2,-9.76286E-3],"split_indices":[26,0,32,2,14,2,0,14,8,2,0,2,2,0,2,0,2,0,0,0,0,0,20,0,0,0,0],"split_type":[0,0,0,0,0,0,0,0,0,0,0,0,0,0,0,0,0,0,0,0,0,0,0,0,0,0,0],"sum_hessian":[2.6E1,4E0,2.2E1,6E0,1.6E1,4E0,2E0,5E0,1.1E1,3E0,1E0,3E0,2E0,1E0,1E1,1E0,2E0,1E0,2E0,1E0,1E0,3E0,7E0,1E0,1E0,6E0,1E0],"tree_param":{"num_deleted":"0","num_feature":"36","num_nodes":"27","size_leaf_vector":"1"}},{"base_weights":[1.50073925E-2,3.7553298E-1,-2.9844862E-1,5.2503396E-2,-4.093454E-2,-4.7759423E-1,3.1360036E-1,-3.055644E-1,2.3188223E-1,-1.4846295E-1,-6.23602E-1,5.711593E-3,2.2792647E-2,7.796307E-3,-2.2995928E-2,-5.68232E-4,1.4776754E-2,-9.235664E-3,-8.6542874E-5,1.1809021E-4,-3.566814E-2],"categories":[],"categories_nodes":[],"categories_segments":[],"categories_sizes":[],"default_left":[0,0,0,0,0,0,0,0,0,0,0,0,0,0,0,0,0,0,0,0,0],"id":11,"left_children":[1,3,5,-1,7,9,11,13,15,17,19,-1,-1,-1,-1,-1,-1,-1,-1,-1,-1],"loss_changes":[3.1633177E0,3.6949687E0,1.7944621E0,0E0,7.206141E-1,4.840865E-1,6.1369807E-2,4.278783E-1,8.077544E-2,2.627571E-2,4.5118093E-1,0E0,0E0,0E0,0E0,0E0,0E0,0E0,0E0,0E0,0E0],"parents":[2147483647,0,0,1,1,2,2,4,4,5,5,6,6,7,7,8,8,9,9,10,10],"right_children":[2,4,6,-1,8,10,12,14,16,18,20,-1,-1,-1,-1,-1,-1,-1,-1,-1,-1],"split_conditions":[-9.900422E-2,-4.3333527E-1,5.148909E-1,5.2503396E-2,-2.5575295E-2,-7.363313E-1,3.5991558E-1,-1.4571426E0,-1.4938215E0,-8.1939244E-1,-1.3373274E0,5.711593E-3,2.2792647E-2,7.796307E-3,-2.2995928E-2,-5.68232E-4,1.4776754E-2,-9.235664E-3,-8.6542874E-5,1.1809021E-4,-3.566814E-2],"split_indices":[26,20,8,0,2,2,2,2,8,2,14,0,0,0,0,0,0,0,0,0,0],"split_type":[0,0,0,0,0,0,0,0,0,0,0,0,0,0,0,0,0,0,0,0,0],"sum_hessian":[2.6E1,1.2E1,1.4E1,4E0,8E0,1.1E1,3E0,4E0,4E0,4E0,7E0,2E0,1E0,1E0,3E0,1E0,3E0,3E0,1E0,1E0,6E0],"tree_param":{"num_deleted":"0","num_feature":"36","num_nodes":"21","size_leaf_vector":"1"}},{"base_weights":[-7.821478E-2,-1.6904883E-1,3.915984E-1,7.989986E-2,-3.703585E-1,6.3048154E-1,-1.4098353E-2,-1.6349459E-1,4.322907E-2,1.804865E-1,-5.3699684E-1,6.887293E-3,3.7440576E-2,-1.3283008E-2,-2.547803E-2,1.1513792E-4,1.1955676E-2,-6.2806565E-1,9.342285E-3,8.428304E-3,-1.0199372E-1,-7.391765E-1,-1.2241481E-1,-8.889326E-3,1.653063E-3,-3.951464E-2,-9.534069E-3,-8.627085E-3,-5.540261E-4],"categories":[],"categories_nodes":[],"categories_segments":[],"categories_sizes":[],"default_left":[0,0,0,0,0,0,0,0,0,0,0,0,0,0,0,0,0,0,0,0,0,0,0,0,0,0,0,0,0],"id":12,"left_children":[1,3,5,7,9,11,-1,13,-1,15,17,-1,-1,19,-1,-1,-1,21,-1,-1,23,25,27,-1,-1,-1,-1,-1,-1],"loss_changes":[1.3037752E0,1.282486E0,9.8229206E-1,2.4331996E0,1.3820072E0,1.3007593E-1,0E0,5.1306266E-1,0E0,4.123488E-2,8.4246564E-1,0E0,0E0,1.4624837E-1,0E0,0E0,0E0,4.7134662E-1,0E0,0E0,6.7295E-2,7.360172E-2,1.48306675E-2,0E0,0E0,0E0,0E0,0E0,0E0],"parents":[2147483647,0,0,1,1,2,2,3,3,4,4,5,5,7,7,9,9,10,10,13,13,17,17,20,20,21,21,22,22],"right_children":[2,4,6,8,10,12,-1,14,-1,16,18,-1,-1,20,-1,-1,-1,22,-1,-1,24,26,28,-1,-1,-1,-1,-1,-1],"split_conditions":[1.1714858E0,-1.1068572E-1,2.686266E0,-4.3333527E-1,-8.1939244E-1,1.2873147E0,-1.4098353E-2,-7.363313E-1,4.322907E-2,-6.91815E-2,1.9617164E0,6.887293E-3,3.7440576E-2,-8.34462E-1,-2.547803E-2,1.1513792E-4,1.1955676E-2,2.795942E-1,9.342285E-3,8.428304E-3,-8.1939244E-1,1.2873147E0,-4.9904715E-2,-8.889326E-3,1.653063E-3,-3.951464E-2,-9.534069E-3,-8.627085E-3,-5.540261E-4],"split_indices":[2,2,2,2,32,2,0,2,0,2,32,0,0,26,0,0,0,20,0,0,2,14,2,0,0,0,0,0,0],"split_type":[0,0,0,0,0,0,0,0,0,0,0,0,0,0,0,0,0,0,0,0,0,0,0,0,0,0,0,0,0],"sum_hessian":[2.8E1,2.4E1,4E0,1.1E1,1.3E1,3E0,1E0,9E0,2E0,3E0,1E1,1E0,2E0,7E0,2E0,1E0,2E0,9E0,1E0,2E0,5E0,7E0,2E0,3E0,2E0,6E0,1E0,1E0,1E0],"tree_param":{"num_deleted":"0","num_feature":"36","num_nodes":"29","size_leaf_vector":"1"}},{"base_weights":[-3.8835242E-2,-1.4107269E-1,3.619256E-2,3.7532642E-1,-2.7667952E-1,2.1042729E-2,4.830349E-3,2.5206673E-1,-3.9923322E-1,4.6769872E-2,-1.4375466E-2,1.7210023E-1,-5.564083E-1,-1.2570588E-4,1.1557153E-2,-4.615112E-2,-6.538446E-1,-5.9839813E-3,2.5226471E-3,-5.401755E-4,-3.6204662E-2],"categories":[],"categories_nodes":[],"categories_segments":[],"categories_sizes":[],"default_left":[0,0,0,0,0,0,0,0,0,0,0,0,0,0,0,0,0,0,0,0,0],"id":13,"left_children":[1,3,-1,5,7,-1,-1,9,11,-1,-1,13,15,-1,-1,17,19,-1,-1,-1,-1],"loss_changes":[1.9735181E0,1.6444447E0,0E0,2.2790372E-2,1.26703E0,0E0,0E0,1.7437712E0,1.4427485E0,0E0,0E0,4.1820012E-2,5.664351E-1,0E0,0E0,2.7347647E-2,4.4390488E-1,0E0,0E0,0E0,0E0],"parents":[2147483647,0,0,1,1,3,3,4,4,7,7,8,8,11,11,12,12,15,15,16,16],"right_children":[2,4,-1,6,8,-1,-1,10,12,-1,-1,14,16,-1,-1,18,20,-1,-1,-1,-1],"split_conditions":[1.1714858E0,-8.34462E-1,3.619256E-2,2.795942E-1,-9.1662717E-1,2.1042729E-2,4.830349E-3,-7.363313E-1,-1.3373274E0,4.6769872E-2,-1.4375466E-2,-7.363313E-1,-7.6163536E-1,-1.2570588E-4,1.1557153E-2,-1.4938215E0,-1.4938215E0,-5.9839813E-3,2.5226471E-3,-5.401755E-4,-3.6204662E-2],"split_indices":[2,26,0,8,20,0,0,14,34,0,0,2,2,0,0,2,8,0,0,0,0],"split_type":[0,0,0,0,0,0,0,0,0,0,0,0,0,0,0,0,0,0,0,0,0],"sum_hessian":[2.3E1,2.1E1,2E0,4E0,1.7E1,3E0,1E0,3E0,1.4E1,1E0,2E0,3E0,1.1E1,1E0,2E0,2E0,9E0,1E0,1E0,1E0,8E0],"tree_param":{"num_deleted":"0","num_feature":"36","num_nodes":"21","size_leaf_vector":"1"}},{"base_weights":[3.251367E-3,2.9560924E-1,-1.9183451E-1,8.792343E-1,-1.061076E-1,1.5566431E-1,-3.7855595E-1,-7.3027886E-3,1.1720707E0,2.6366841E-2,-2.5835717E-2,-1.5959091E-1,1.568423E-2,-4.8708647E-1,2.0382002E-2,6.788058E-2,1.5386212E-2,7.7161426E-3,-5.5680133E-2,1.0173758E-3,-1.2986694E-2,1.1627857E-2,-5.8230656E-1,-6.198023E-3,3.1160237E-2,-6.877184E-1,-1.0710616E-1,2.459581E-3,-1.2256321E-4,-3.6900878E-2,-8.390601E-3,-7.506291E-3,-5.266711E-4],"categories":[],"categories_nodes":[],"categories_segments":[],"categories_sizes":[],"default_left":[0,0,0,0,0,0,0,0,0,0,0,0,0,0,0,0,0,0,0,0,0,0,0,0,0,0,0,0,0,0,0,0,0],"id":14,"left_children":[1,3,5,7,9,11,13,-1,15,17,-1,19,-1,21,-1,-1,-1,-1,23,-1,-1,-1,25,-1,27,29,31,-1,-1,-1,-1,-1,-1],"loss_changes":[1.7107198E0,2.9067175E0,1.2268662E0,1.672399E0,4.487833E-1,3.9877826E-1,1.2224714E0,0E0,2.2371626E-1,8.208154E-2,0E0,5.9343643E-2,0E0,8.8918924E-1,0E0,0E0,0E0,0E0,3.351008E-2,0E0,0E0,0E0,4.2725873E-1,0E0,1.938767E-3,8.535862E-2,1.0882236E-2,0E0,0E0,0E0,0E0,0E0,0E0],"parents":[2147483647,0,0,1,1,2,2,3,3,4,4,5,5,6,6,8,8,9,9,11,11,13,13,18,18,22,22,24,24,25,25,26,26],"right_children":[2,4,6,8,10,12,14,-1,16,18,-1,20,-1,22,-1,-1,-1,-1,24,-1,-1,-1,26,-1,28,30,32,-1,-1,-1,-1,-1,-1],"split_conditions":[-1.1068572E-1,-4.3333527E-1,-4.4455814E-1,-7.6163536E-1,-7.363313E-1,-1.3373274E0,1.9617164E0,-7.3027886E-3,-8.1939244E-1,-8.34462E-1,-2.5835717E-2,-6.91815E-2,1.568423E-2,-1.3373274E0,2.0382002E-2,6.788058E-2,1.5386212E-2,7.7161426E-3,-8.1939244E-1,1.0173758E-3,-1.2986694E-2,1.1627857E-2,3.5991558E-1,-6.198023E-3,-7.6163536E-1,1.2873147E0,-4.9904715E-2,2.459581E-3,-1.2256321E-4,-3.6900878E-2,-8.390601E-3,-7.506291E-3,-5.266711E-4],"split_indices":[2,20,14,8,2,14,14,0,20,26,0,2,0,32,0,0,0,0,2,0,0,0,20,0,2,14,2,0,0,0,0,0,0],"split_type":[0,0,0,0,0,0,0,0,0,0,0,0,0,0,0,0,0,0,0,0,0,0,0,0,0,0,0,0,0,0,0,0,0],"sum_hessian":[2.8E1,1.1E1,1.7E1,4E0,7E0,6E0,1.1E1,1E0,3E0,6E0,1E0,2E0,4E0,1E1,1E0,2E0,1E0,2E0,4E0,1E0,1E0,1E0,9E0,2E0,2E0,7E0,2E0,1E0,1E0,6E0,1E0,1E0,1E0],"tree_param":{"num_deleted":"0","num_feature":"36","num_nodes":"33","size_leaf_vector":"1"}},{"base_weights":[3.4401044E-2,4.3534625E-1,-1.7843333E-1,8.504654E-1,1.6855909E-2,1.17180236E-1,-2.9237962E-1,-7.120219E-3,1.1342839E0,-2.732717E-2,2.3884445E-1,-8.651299E-3,1.0491334E-2,1.4956881E-1,-3.7850177E-1,6.561789E-2,1.5001557E-2,4.2474672E-1,-1.26191145E-2,-1.1949912E-4,1.133716E-2,-9.2719935E-2,-4.6346015E-1,2.5157843E-2,4.7379094E-3,2.260022E-3,-1.2662026E-2,-2.9968256E-2,-1.4373772E-1,-9.240178E-3,-5.1350426E-4],"categories":[],"categories_nodes":[],"categories_segments":[],"categories_sizes":[],"default_left":[0,0,0,0,0,0,0,0,0,0,0,0,0,0,0,0,0,0,0,0,0,0,0,0,0,0,0,0,0,0,0],"id":15,"left_children":[1,3,5,7,9,11,13,-1,15,-1,17,-1,-1,19,21,-1,-1,23,-1,-1,-1,25,27,-1,-1,-1,-1,-1,29,-1,-1],"loss_changes":[2.467058E0,1.7228982E0,6.742584E-1,1.5705009E0,8.8094807E-1,1.9762489E-1,5.894736E-1,0E0,2.0048666E-1,0E0,5.637994E-1,0E0,0E0,3.5723895E-2,2.483828E-1,0E0,0E0,5.581945E-2,0E0,0E0,0E0,1.0000281E-1,3.049153E-1,0E0,0E0,0E0,0E0,0E0,2.0025894E-2,0E0,0E0],"parents":[2147483647,0,0,1,1,2,2,3,3,4,4,5,5,6,6,8,8,10,10,13,13,14,14,17,17,21,21,22,22,28,28],"right_children":[2,4,6,8,10,12,14,-1,16,-1,18,-1,-1,20,22,-1,-1,24,-1,-1,-1,26,28,-1,-1,-1,-1,-1,30,-1,-1],"split_conditions":[-4.3333527E-1,-1.1068572E-1,-7.6163536E-1,-7.6163536E-1,1.560462E-2,-1.3373274E0,-1.3373274E0,-7.120219E-3,-8.1939244E-1,-2.732717E-2,7.198424E-1,-8.651299E-3,1.0491334E-2,-7.363313E-1,-1.3373274E0,6.561789E-2,1.5001557E-2,1.1714858E0,-1.26191145E-2,-1.1949912E-4,1.133716E-2,-6.91815E-2,1.701874E-1,2.5157843E-2,4.7379094E-3,2.260022E-3,-1.2662026E-2,-2.9968256E-2,-2.5575295E-2,-9.240178E-3,-5.1350426E-4],"split_indices":[20,2,26,8,2,8,32,0,20,0,26,0,0,2,14,0,0,8,0,0,0,2,14,0,0,0,0,0,2,0,0],"split_type":[0,0,0,0,0,0,0,0,0,0,0,0,0,0,0,0,0,0,0,0,0,0,0,0,0,0,0,0,0,0,0],"sum_hessian":[2.7E1,9E0,1.8E1,4E0,5E0,5E0,1.3E1,1E0,3E0,1E0,4E0,1E0,4E0,2E0,1.1E1,2E0,1E0,3E0,1E0,1E0,1E0,3E0,8E0,2E0,1E0,2E0,1E0,5E0,3E0,2E0,1E0],"tree_param":{"num_deleted":"0","num_feature":"36","num_nodes":"31","size_leaf_vector":"1"}},{"base_weights":[1.3924146E-3,3.3515763E-1,-1.9191337E-1,8.2264197E-1,-6.092515E-2,8.267798E-2,-2.7064958E-1,-6.9422135E-3,1.0977247E0,-4.8230436E-1,3.30841E-2,-8.435017E-3,9.384883E-3,7.632505E-2,-3.6375368E-1,6.343063E-2,1.4626518E-2,-3.2453757E-2,4.619462E-3,-4.561635E-2,1.1053732E-2,-9.068444E-2,-4.447007E-1,-3.3047148E-3,-1.1651162E-4,2.1846879E-3,-1.2345477E-2,-2.8719578E-2,-1.3898924E-1,-8.932172E-3,-5.0066673E-4],"categories":[],"categories_nodes":[],"categories_segments":[],"categories_sizes":[],"default_left":[0,0,0,0,0,0,0,0,0,0,0,0,0,0,0,0,0,0,0,0,0,0,0,0,0,0,0,0,0,0,0],"id":16,"left_children":[1,3,5,7,9,11,13,-1,15,17,-1,-1,-1,19,21,-1,-1,-1,-1,23,-1,25,27,-1,-1,-1,-1,-1,29,-1,-1],"loss_changes":[1.9353647E0,2.174045E0,4.331622E-1,1.474854E0,2.4505734E0,1.6366298E-1,5.1233494E-1,0E0,1.792841E-1,5.3917766E-1,0E0,0E0,0E0,8.068849E-2,2.249223E-1,0E0,0E0,0E0,0E0,2.5052167E-3,0E0,9.47614E-2,2.7699745E-1,0E0,0E0,0E0,0E0,0E0,1.8668927E-2,0E0,0E0],"parents":[2147483647,0,0,1,1,2,2,3,3,4,4,5,5,6,6,8,8,9,9,13,13,14,14,19,19,21,21,22,22,28,28],"right_children":[2,4,6,8,10,12,14,-1,16,18,-1,-1,-1,20,22,-1,-1,-1,-1,24,-1,26,28,-1,-1,-1,-1,-1,30,-1,-1],"split_conditions":[-4.3333527E-1,-1.1068572E-1,-7.6163536E-1,-7.6163536E-1,-7.6163536E-1,-1.3373274E0,-1.3373274E0,-6.9422135E-3,-8.1939244E-1,3.5991558E-1,3.30841E-2,-8.435017E-3,9.384883E-3,-7.363313E-1,-1.3373274E0,6.343063E-2,1.4626518E-2,-3.2453757E-2,4.619462E-3,-8.1939244E-1,1.1053732E-2,-6.91815E-2,1.701874E-1,-3.3047148E-3,-1.1651162E-4,2.1846879E-3,-1.2345477E-2,-2.8719578E-2,-2.5575295E-2,-8.932172E-3,-5.0066673E-4],"split_indices":[20,2,26,8,20,8,32,0,20,8,0,0,0,2,14,0,0,0,0,2,0,2,14,0,0,0,0,0,2,0,0],"split_type":[0,0,0,0,0,0,0,0,0,0,0,0,0,0,0,0,0,0,0,0,0,0,0,0,0,0,0,0,0,0,0],"sum_hessian":[2.8E1,1E1,1.8E1,4E0,6E0,4E0,1.4E1,1E0,3E0,4E0,2E0,1E0,3E0,3E0,1.1E1,2E0,1E0,3E0,1E0,2E0,1E0,3E0,8E0,1E0,1E0,2E0,1E0,5E0,3E0,2E0,1E0],"tree_param":{"num_deleted":"0","num_feature":"36","num_nodes":"31","size_leaf_vector":"1"}},{"base_weights":[3.488197E-2,3.619902E-1,-1.9806986E-1,-2.1278128E-2,5.62057E-1,9.597433E-2,-2.959276E-1,1.0623527E0,1.9587995E-1,-8.224142E-3,1.0110467E-2,-5.0190754E-2,-3.9956728E-1,6.1316278E-2,1.4260854E-2,-2.5832647E-2,4.0074426E-1,-5.63148E-3,2.8978333E-2,8.8082347E-4,-4.539173E-1,3.354998E-2,-9.317758E-2,2.2869739E-3,-1.1359882E-4,-4.8815014E-4,-5.159732E-1,-1.1492293E-2,4.503975E-3,-2.7522927E-2,-7.7265273E-3],"categories":[],"categories_nodes":[],"categories_segments":[],"categories_sizes":[],"default_left":[0,0,0,0,0,0,0,0,0,0,0,0,0,0,0,0,0,0,0,0,0,0,0,0,0,0,0,0,0,0,0],"id":17,"left_children":[1,3,5,-1,7,9,11,13,15,-1,-1,17,19,-1,-1,-1,21,-1,23,-1,25,-1,27,-1,-1,-1,29,-1,-1,-1,-1],"loss_changes":[2.2053123E0,2.1299486E0,5.175681E-1,0E0,1.6238747E0,1.716083E-1,3.110304E-1,1.5994787E-1,1.2288536E0,0E0,0E0,2.7979944E-2,2.12062E-1,0E0,0E0,0E0,8.634321E-1,0E0,1.6752915E-3,0E0,2.1546161E-1,0E0,9.58407E-2,0E0,0E0,0E0,2.1888018E-3,0E0,0E0,0E0,0E0],"parents":[2147483647,0,0,1,1,2,2,4,4,5,5,6,6,7,7,8,8,11,11,12,12,16,16,18,18,20,20,22,22,26,26],"right_children":[2,4,6,-1,8,10,12,14,16,-1,-1,18,20,-1,-1,-1,22,-1,24,-1,26,-1,28,-1,-1,-1,30,-1,-1,-1,-1],"split_conditions":[-4.3333527E-1,-7.6163536E-1,-7.6163536E-1,-2.1278128E-2,-1.1068572E-1,-1.3373274E0,-7.363313E-1,-8.1939244E-1,1.560462E-2,-8.224142E-3,1.0110467E-2,-8.1939244E-1,-1.3373274E0,6.1316278E-2,1.4260854E-2,-2.5832647E-2,1.560462E-2,-5.63148E-3,-7.6163536E-1,8.8082347E-4,-1.4938215E0,3.354998E-2,2.795942E-1,2.2869739E-3,-1.1359882E-4,-4.8815014E-4,1.701874E-1,-1.1492293E-2,4.503975E-3,-2.7522927E-2,-7.7265273E-3],"split_indices":[20,8,26,0,2,8,2,20,2,0,0,2,14,0,0,0,26,0,2,0,8,0,2,0,0,0,14,0,0,0,0],"split_type":[0,0,0,0,0,0,0,0,0,0,0,0,0,0,0,0,0,0,0,0,0,0,0,0,0,0,0,0,0,0,0],"sum_hessian":[2.7E1,1.1E1,1.6E1,2E0,9E0,4E0,1.2E1,3E0,6E0,1E0,3E0,4E0,8E0,2E0,1E0,1E0,5E0,2E0,2E0,1E0,7E0,3E0,2E0,1E0,1E0,1E0,6E0,1E0,1E0,5E0,1E0],"tree_param":{"num_deleted":"0","num_feature":"36","num_nodes":"31","size_leaf_vector":"1"}},{"base_weights":[4.9183752E-2,4.0283498E-1,-1.5815032E-1,1.0281293E0,3.983344E-2,1.0140753E-1,-2.5809294E-1,5.9272397E-2,1.3904333E-2,5.340557E-1,-3.635111E-1,-8.018538E-3,9.291868E-3,1.4479722E-1,-3.3730772E-1,4.3913755E-3,3.267613E-2,-3.05042E-2,1.5569515E-2,-1.1075884E-4,1.0970551E-2,-3.806048E-2,-3.9335114E-1,-5.0843353E-3,2.2297995E-3,-4.7594644E-4,-4.349415E-1,-7.1427436E-3,-2.4899349E-2],"categories":[],"categories_nodes":[],"categories_segments":[],"categories_sizes":[],"default_left":[0,0,0,0,0,0,0,0,0,0,0,0,0,0,0,0,0,0,0,0,0,0,0,0,0,0,0,0,0],"id":18,"left_children":[1,3,5,7,9,11,13,-1,-1,15,17,-1,-1,19,21,-1,-1,-1,-1,-1,-1,23,25,-1,-1,-1,27,-1,-1],"loss_changes":[2.1901028E0,2.4558568E0,5.190495E-1,1.4232588E-1,1.78887E0,1.6241424E-1,4.9564946E-1,0E0,0E0,1.5584075E-1,1.0220361E0,0E0,0E0,3.3393487E-2,1.862787E-1,0E0,0E0,0E0,0E0,0E0,0E0,2.0312177E-2,1.5549707E-1,0E0,0E0,0E0,9.459281E-2,0E0,0E0],"parents":[2147483647,0,0,1,1,2,2,3,3,4,4,5,5,6,6,9,9,10,10,13,13,14,14,21,21,22,22,26,26],"right_children":[2,4,6,8,10,12,14,-1,-1,16,18,-1,-1,20,22,-1,-1,-1,-1,-1,-1,24,26,-1,-1,-1,28,-1,-1],"split_conditions":[-4.3333527E-1,-1.1068572E-1,-7.6163536E-1,-8.1939244E-1,3.5991558E-1,-1.3373274E0,-1.3373274E0,5.9272397E-2,1.3904333E-2,3.5991558E-1,-7.6163536E-1,-8.018538E-3,9.291868E-3,-7.363313E-1,-7.6163536E-1,4.3913755E-3,3.267613E-2,-3.05042E-2,1.5569515E-2,-1.1075884E-4,1.0970551E-2,-1.4938215E0,-1.4938215E0,-5.0843353E-3,2.2297995E-3,-4.7594644E-4,-8.1939244E-1,-7.1427436E-3,-2.4899349E-2],"split_indices":[20,2,26,20,32,8,32,0,0,2,20,0,0,2,2,0,0,0,0,0,0,2,8,0,0,0,32,0,0],"split_type":[0,0,0,0,0,0,0,0,0,0,0,0,0,0,0,0,0,0,0,0,0,0,0,0,0,0,0,0,0],"sum_hessian":[2.8E1,1E1,1.8E1,3E0,7E0,5E0,1.3E1,2E0,1E0,3E0,4E0,1E0,4E0,2E0,1.1E1,1E0,2E0,3E0,1E0,1E0,1E0,2E0,9E0,1E0,1E0,1E0,8E0,2E0,6E0],"tree_param":{"num_deleted":"0","num_feature":"36","num_nodes":"29","size_leaf_vector":"1"}},{"base_weights":[4.286204E-2,4.242626E-1,-1.60131E-1,-2.1048328E-2,6.881907E-1,2.8506972E-2,-2.999138E-1,4.3127745E-2,5.333015E-2,-1.8300576E-2,1.2357323E-1,-4.7757626E-2,-4.3718052E-1,1.9158002E-2,-2.4424227E-2,-1.10428296E-1,1.0998922E-2,-5.357179E-3,2.7547527E-2,-2.6830241E-2,-1.1423054E-2,-7.818075E-3,-4.6404786E-4,2.1740545E-3,-1.0798988E-4],"categories":[],"categories_nodes":[],"categories_segments":[],"categories_sizes":[],"default_left":[0,0,0,0,0,0,0,0,0,0,0,0,0,0,0,0,0,0,0,0,0,0,0,0,0],"id":19,"left_children":[1,3,5,-1,7,9,11,13,-1,-1,15,17,19,-1,-1,21,-1,-1,23,-1,-1,-1,-1,-1,-1],"loss_changes":[2.2357442E0,2.5205028E0,5.095482E-1,0E0,1.9067974E0,3.8277778E-1,3.5986042E-1,9.10229E-1,0E0,0E0,2.0476359E-1,2.531188E-2,2.2669196E-2,0E0,0E0,1.2486879E-2,0E0,0E0,1.513941E-3,0E0,0E0,0E0,0E0,0E0,0E0],"parents":[2147483647,0,0,1,1,2,2,4,4,5,5,6,6,7,7,10,10,11,11,12,12,15,15,18,18],"right_children":[2,4,6,-1,8,10,12,14,-1,-1,16,18,20,-1,-1,22,-1,-1,24,-1,-1,-1,-1,-1,-1],"split_conditions":[-4.3333527E-1,-7.6163536E-1,-2.3520553E-1,-2.1048328E-2,-7.634062E-1,-9.971853E-2,-7.363313E-1,2.795942E-1,5.333015E-2,-1.8300576E-2,-1.3373274E0,-8.1939244E-1,-2.3520553E-1,1.9158002E-2,-2.4424227E-2,-4.3333527E-1,1.0998922E-2,-5.357179E-3,-7.6163536E-1,-2.6830241E-2,-1.1423054E-2,-7.818075E-3,-4.6404786E-4,2.1740545E-3,-1.0798988E-4],"split_indices":[20,8,26,0,26,20,2,8,0,0,8,2,14,0,0,2,0,0,2,0,0,0,0,0,0],"split_type":[0,0,0,0,0,0,0,0,0,0,0,0,0,0,0,0,0,0,0,0,0,0,0,0,0],"sum_hessian":[2.7E1,9E0,1.8E1,2E0,7E0,8E0,1E1,3E0,4E0,1E0,7E0,4E0,6E0,2E0,1E0,2E0,5E0,2E0,2E0,3E0,3E0,1E0,1E0,1E0,1E0],"tree_param":{"num_deleted":"0","num_feature":"36","num_nodes":"25","size_leaf_vector":"1"}},{"base_weights":[5.9895427E-3,3.2743078E-1,-1.4736293E-1,7.3087925E-1,-6.334806E-2,1.6584788E-1,-3.158146E-1,1.0557397E-2,5.0349206E-2,1.2852507E-2,-1.1108773E-2,-3.0387235E-1,5.0845444E-1,2.1783365E-1,-4.229088E-1,-4.0665355E-2,3.10431E-3,2.119703E-3,-2.1671291E-2,3.4020502E-2,8.350704E-3,3.2597499E-3,1.3077775E-2,-5.090768E-1,-1.23303734E-1,-2.9446115E-3,-1.0529011E-4,-8.010402E-3,-5.8586663E-1,-7.918618E-3,-4.5244675E-4,-3.1967122E-2,-6.6253035E-3],"categories":[],"categories_nodes":[],"categories_segments":[],"categories_sizes":[],"default_left":[0,0,0,0,0,0,0,0,0,0,0,0,0,0,0,0,0,0,0,0,0,0,0,0,0,0,0,0,0,0,0,0,0],"id":20,"left_children":[1,3,5,7,9,11,13,-1,-1,15,-1,17,19,21,23,25,-1,-1,-1,-1,-1,-1,-1,27,29,-1,-1,-1,31,-1,-1,-1,-1],"loss_changes":[1.5270655E0,1.6228912E0,1.1603558E0,5.0487924E-1,7.547193E-2,1.4419391E0,8.9223266E-1,0E0,0E0,1.5699167E-2,0E0,1.9781476E-1,1.7992496E-1,2.968818E-3,2.4702525E-1,1.984445E-3,0E0,0E0,0E0,0E0,0E0,0E0,0E0,1.4724565E-1,1.4593925E-2,0E0,0E0,0E0,8.4990025E-2,0E0,0E0,0E0,0E0],"parents":[2147483647,0,0,1,1,2,2,3,3,4,4,5,5,6,6,9,9,11,11,12,12,13,13,14,14,15,15,23,23,24,24,28,28],"right_children":[2,4,6,8,10,12,14,-1,-1,16,-1,18,20,22,24,26,-1,-1,-1,-1,-1,-1,-1,28,30,-1,-1,-1,32,-1,-1,-1,-1],"split_conditions":[-7.6163536E-1,-9.900422E-2,-4.4455814E-1,1.560462E-2,3.5991558E-1,-9.1662717E-1,-1.3373274E0,1.0557397E-2,5.0349206E-2,-7.363313E-1,-1.1108773E-2,-7.6163536E-1,1.701874E-1,-9.1662717E-1,2.795942E-1,-8.1939244E-1,3.10431E-3,2.119703E-3,-2.1671291E-2,3.4020502E-2,8.350704E-3,3.2597499E-3,1.3077775E-2,-8.34462E-1,-4.9904715E-2,-2.9446115E-3,-1.0529011E-4,-8.010402E-3,1.2873147E0,-7.918618E-3,-4.5244675E-4,-3.1967122E-2,-6.6253035E-3],"split_indices":[32,28,16,8,2,16,28,0,0,2,0,2,2,2,20,2,0,0,0,0,0,0,0,2,2,0,0,0,16,0,0,0,0],"split_type":[0,0,0,0,0,0,0,0,0,0,0,0,0,0,0,0,0,0,0,0,0,0,0,0,0,0,0,0,0,0,0,0,0],"sum_hessian":[2.9E1,9E0,2E1,4E0,5E0,7E0,1.3E1,2E0,2E0,4E0,1E0,3E0,4E0,2E0,1.1E1,2E0,2E0,1E0,2E0,2E0,2E0,1E0,1E0,8E0,3E0,1E0,1E0,2E0,6E0,2E0,1E0,5E0,1E0],"tree_param":{"num_deleted":"0","num_feature":"36","num_nodes":"33","size_leaf_vector":"1"}},{"base_weights":[6.3958354E-2,-2.1519299E-1,1.6725609E-1,3.952487E-3,-2.6852047E-1,4.3031928E-1,-2.773043E-2,-2.1353725E-2,-1.1968397E-1,-1.0723812E-2,5.5786353E-1,-1.9139338E-1,2.9080525E-2,-1.4857839E-1,-1.02657876E-4,-2.8709962E-3,2.0667105E-3,7.037481E-3,7.7678645E-1,1.08561724E-1,-4.5944956E-1,-9.611136E-3,-4.4113566E-4,-4.6230378E-3,5.1508485E-3,2.1238782E-1,5.4112818E-2,2.1206477E-1,-1.02238385E-2,-7.01134E-3,-2.9200215E-2,3.178256E-3,1.275083E-2,3.0008329E-3,1.4671232E-2],"categories":[],"categories_nodes":[],"categories_segments":[],"categories_sizes":[],"default_left":[0,0,0,0,0,0,0,0,0,0,0,0,0,0,0,0,0,0,0,0,0,0,0,0,0,0,0,0,0,0,0,0,0,0,0],"id":21,"left_children":[1,3,5,-1,7,9,11,-1,13,15,17,19,-1,21,-1,-1,-1,23,25,27,29,-1,-1,-1,-1,31,-1,33,-1,-1,-1,-1,-1,-1,-1],"loss_changes":[8.433919E-1,1.4675629E-1,1.0891023E0,0E0,1.14076376E-1,5.122552E-1,1.4077613E0,0E0,1.6689323E-2,9.666129E-3,8.386524E-1,9.3433166E-1,0E0,2.270224E-2,0E0,0E0,0E0,3.8174395E-2,6.321757E-1,2.3776498E-1,1.5667117E-1,0E0,0E0,0E0,0E0,2.8222352E-3,0E0,4.424268E-2,0E0,0E0,0E0,0E0,0E0,0E0,0E0],"parents":[2147483647,0,0,1,1,2,2,4,4,5,5,6,6,8,8,9,9,10,10,11,11,13,13,17,17,18,18,19,19,20,20,25,25,27,27],"right_children":[2,4,6,-1,8,10,12,-1,14,16,18,20,-1,22,-1,-1,-1,24,26,28,30,-1,-1,-1,-1,32,-1,34,-1,-1,-1,-1,-1,-1,-1],"split_conditions":[-7.363313E-1,-1.4938215E0,-1.1068572E-1,3.952487E-3,1.560462E-2,-7.6163536E-1,1.1714858E0,-2.1353725E-2,1.075887E0,-8.1939244E-1,-1.4571426E0,-4.4455814E-1,2.9080525E-2,-4.3333527E-1,-1.02657876E-4,-2.8709962E-3,2.0667105E-3,-1.4938215E0,-1.3373274E0,1.075887E0,-2.5575295E-2,-9.611136E-3,-4.4113566E-4,-4.6230378E-3,5.1508485E-3,-9.1662717E-1,5.4112818E-2,-8.34462E-1,-1.02238385E-2,-7.01134E-3,-2.9200215E-2,3.178256E-3,1.275083E-2,3.0008329E-3,1.4671232E-2],"split_indices":[8,26,2,0,14,14,2,0,14,2,2,14,0,2,0,0,0,2,26,2,8,0,0,0,0,2,0,14,0,0,0,0,0,0,0],"split_type":[0,0,0,0,0,0,0,0,0,0,0,0,0,0,0,0,0,0,0,0,0,0,0,0,0,0,0,0,0,0,0,0,0,0,0],"sum_hessian":[2.7E1,7E0,2E1,1E0,6E0,8E0,1.2E1,2E0,4E0,2E0,6E0,1E1,2E0,3E0,1E0,1E0,1E0,2E0,4E0,5E0,5E0,2E0,1E0,1E0,1E0,2E0,2E0,4E0,1E0,2E0,3E0,1E0,1E0,2E0,2E0],"tree_param":{"num_deleted":"0","num_feature":"36","num_nodes":"35","size_leaf_vector":"1"}},{"base_weights":[4.2794637E-2,2.7636093E-1,-1.7805354E-1,7.7474093E-1,-4.65142E-4,-2.3527947E-1,1.5577733E-2,1.7277395E-2,4.7284346E-2,-1.4441179E-1,1.7236386E-1,-8.990208E-2,-2.3948917E-2,5.413918E-3,-1.4891324E-2,-4.3010732E-4,1.0987795E-2,2.311292E-2,-1.0376983E-2,3.1831253E-3,-3.86575E-2,-2.7992213E-3,-1.0009143E-4],"categories":[],"categories_nodes":[],"categories_segments":[],"categories_sizes":[],"default_left":[0,0,0,0,0,0,0,0,0,0,0,0,0,0,0,0,0,0,0,0,0,0,0],"id":22,"left_children":[1,3,5,7,9,11,-1,-1,-1,13,15,17,-1,-1,-1,-1,-1,19,-1,-1,21,-1,-1],"loss_changes":[1.4935224E0,1.9318643E0,4.935766E-1,4.0064096E-2,2.736729E-1,4.5293516E-1,0E0,0E0,0E0,2.6484644E-1,4.477212E-2,1.3774496E-1,0E0,0E0,0E0,0E0,0E0,1.7489625E-2,0E0,0E0,1.7933189E-3,0E0,0E0],"parents":[2147483647,0,0,1,1,2,2,3,3,4,4,5,5,9,9,10,10,11,11,17,17,20,20],"right_children":[2,4,6,8,10,12,-1,-1,-1,14,16,18,-1,-1,-1,-1,-1,20,-1,-1,22,-1,-1],"split_conditions":[-9.900422E-2,-4.3333527E-1,2.686266E0,-9.1662717E-1,-2.5575295E-2,3.5991558E-1,1.5577733E-2,1.7277395E-2,4.7284346E-2,-9.1662717E-1,-1.4938215E0,-2.3520553E-1,-2.3948917E-2,5.413918E-3,-1.4891324E-2,-4.3010732E-4,1.0987795E-2,-8.34462E-1,-1.0376983E-2,3.1831253E-3,-8.1939244E-1,-2.7992213E-3,-1.0009143E-4],"split_indices":[26,20,14,26,4,4,0,0,0,4,8,32,0,0,0,0,0,14,0,0,4,0,0],"split_type":[0,0,0,0,0,0,0,0,0,0,0,0,0,0,0,0,0,0,0,0,0,0,0],"sum_hessian":[2.7E1,1.3E1,1.4E1,4E0,9E0,1.3E1,1E0,2E0,2E0,5E0,4E0,9E0,4E0,2E0,3E0,1E0,3E0,5E0,4E0,3E0,2E0,1E0,1E0],"tree_param":{"num_deleted":"0","num_feature":"36","num_nodes":"23","size_leaf_vector":"1"}},{"base_weights":[2.7470853E-2,3.4623545E-1,-1.1045068E-1,6.68056E-1,-4.48322E-2,2.603177E-1,-2.130031E-1,9.9631315E-3,4.57082E-2,4.0944625E-2,-9.698487E-3,3.4385517E-2,-1.8458031E-2,2.8631204E-1,-3.4045008E-1,-9.758915E-5,2.7947011E-3,-1.1356061E-2,1.5188289E-2,1.6701482E-2,3.5789802E-3,-3.8976026E-1,7.5145583E-3,-2.31261E-1,-2.9855344E-2,-1.9433536E-2,-4.3888846E-3],"categories":[],"categories_nodes":[],"categories_segments":[],"categories_sizes":[],"default_left":[0,0,0,0,0,0,0,0,0,0,0,0,0,0,0,0,0,0,0,0,0,0,0,0,0,0,0],"id":23,"left_children":[1,3,5,7,9,11,13,-1,-1,15,-1,-1,17,19,21,-1,-1,-1,-1,-1,-1,23,-1,25,-1,-1,-1],"loss_changes":[1.3132124E0,1.162633E0,8.539357E-1,3.9471006E-1,7.190475E-2,6.084273E-1,1.1792903E0,0E0,0E0,2.674195E-3,0E0,0E0,3.3793664E-1,1.7076373E-2,3.973571E-1,0E0,0E0,0E0,0E0,0E0,0E0,2.891482E-1,0E0,1.6915438E-1,0E0,0E0,0E0],"parents":[2147483647,0,0,1,1,2,2,3,3,4,4,5,5,6,6,9,9,12,12,13,13,14,14,21,21,23,23],"right_children":[2,4,6,8,10,12,14,-1,-1,16,-1,-1,18,20,22,-1,-1,-1,-1,-1,-1,24,-1,26,-1,-1,-1],"split_conditions":[-7.6163536E-1,-9.900422E-2,-9.1662717E-1,1.560462E-2,3.5991558E-1,-7.363313E-1,-9.1662717E-1,9.9631315E-3,4.57082E-2,-7.363313E-1,-9.698487E-3,3.4385517E-2,2.795942E-1,1.701874E-1,3.0130455E0,-9.758915E-5,2.7947011E-3,-1.1356061E-2,1.5188289E-2,1.6701482E-2,3.5789802E-3,2.795942E-1,7.5145583E-3,-4.3333527E-1,-2.9855344E-2,-1.9433536E-2,-4.3888846E-3],"split_indices":[32,26,20,8,2,16,26,0,0,2,0,0,2,2,32,0,0,0,0,0,0,32,0,32,0,0,0],"split_type":[0,0,0,0,0,0,0,0,0,0,0,0,0,0,0,0,0,0,0,0,0,0,0,0,0,0,0],"sum_hessian":[2.8E1,8E0,2E1,4E0,4E0,4E0,1.6E1,2E0,2E0,3E0,1E0,1E0,3E0,3E0,1.3E1,1E0,2E0,2E0,1E0,2E0,1E0,1.2E1,1E0,8E0,4E0,3E0,5E0],"tree_param":{"num_deleted":"0","num_feature":"36","num_nodes":"27","size_leaf_vector":"1"}},{"base_weights":[2.1334164E-2,2.899911E-1,-1.2910491E-1,6.457875E-1,-5.483773E-2,2.4202056E-1,-2.5242797E-1,9.6310275E-3,4.4184595E-2,9.842926E-3,-9.456025E-3,1.6144766E-2,4.0236134E-3,-3.70407E-1,1.351214E-1,-3.7626006E-2,2.7015442E-3,-8.30157E-2,-4.6780178E-1,1.4756851E-2,-8.623135E-3,-2.7268012E-3,-9.514941E-5,-6.897838E-3,2.0451867E-3,-2.5181169E-2,-5.4262653E-3],"categories":[],"categories_nodes":[],"categories_segments":[],"categories_sizes":[],"default_left":[0,0,0,0,0,0,0,0,0,0,0,0,0,0,0,0,0,0,0,0,0,0,0,0,0,0,0],"id":24,"left_children":[1,3,5,7,9,11,13,-1,-1,15,-1,-1,-1,17,19,21,-1,23,25,-1,-1,-1,-1,-1,-1,-1,-1],"loss_changes":[1.1286849E0,1.2623022E0,8.849225E-1,3.6883473E-1,5.3974483E-2,3.9341778E-2,6.901677E-1,0E0,0E0,1.2520742E-2,0E0,0E0,0E0,2.6905966E-1,2.4777314E-1,1.7084493E-3,0E0,3.2876007E-2,4.8303008E-2,0E0,0E0,0E0,0E0,0E0,0E0,0E0,0E0],"parents":[2147483647,0,0,1,1,2,2,3,3,4,4,5,5,6,6,9,9,13,13,14,14,15,15,17,17,18,18],"right_children":[2,4,6,8,10,12,14,-1,-1,16,-1,-1,-1,18,20,22,-1,24,26,-1,-1,-1,-1,-1,-1,-1,-1],"split_conditions":[-7.6163536E-1,-9.900422E-2,-9.1662717E-1,1.560462E-2,3.5991558E-1,-4.3333527E-1,4.8191646E-1,9.6310275E-3,4.4184595E-2,-7.363313E-1,-9.456025E-3,1.6144766E-2,4.0236134E-3,-7.6163536E-1,1.1714858E0,-8.1939244E-1,2.7015442E-3,-8.34462E-1,1.2873147E0,1.4756851E-2,-8.623135E-3,-2.7268012E-3,-9.514941E-5,-6.897838E-3,2.0451867E-3,-2.5181169E-2,-5.4262653E-3],"split_indices":[32,26,26,8,2,20,2,0,0,2,0,0,0,2,8,2,0,2,14,0,0,0,0,0,0,0,0],"split_type":[0,0,0,0,0,0,0,0,0,0,0,0,0,0,0,0,0,0,0,0,0,0,0,0,0,0,0],"sum_hessian":[2.6E1,9E0,1.7E1,4E0,5E0,4E0,1.3E1,2E0,2E0,4E0,1E0,2E0,2E0,1E1,3E0,2E0,2E0,3E0,7E0,2E0,1E0,1E0,1E0,2E0,1E0,6E0,1E0],"tree_param":{"num_deleted":"0","num_feature":"36","num_nodes":"27","size_leaf_vector":"1"}},{"base_weights":[3.487605E-2,3.0910093E-1,-1.1128843E-1,-1.8036371E-2,5.2164894E-1,6.8755555E-3,-1.8680237E-1,-1.4548886E-1,7.682764E-1,-2.783648E-1,-3.0645838E-3,1.1178969E-2,-2.2090634E-2,4.5065094E-2,2.5787242E-3,-5.0749853E-2,-3.686641E-1,9.568114E-3,-8.022241E-2,2.2217145E-3,-8.407557E-3,-2.6586312E-3,-2.0619197E-2,-1.0284326E-2,-6.170985E-3,-9.277067E-5,-6.785538E-4],"categories":[],"categories_nodes":[],"categories_segments":[],"categories_sizes":[],"default_left":[0,0,0,0,0,0,0,0,0,0,0,0,0,0,0,0,0,0,0,0,0,0,0,0,0,0,0],"id":25,"left_children":[1,3,5,-1,7,-1,9,11,13,15,17,-1,-1,-1,-1,19,21,-1,23,-1,-1,-1,-1,25,-1,-1,-1],"loss_changes":[1.1566936E0,1.6118802E0,3.8265622E-1,0E0,1.4280515E0,0E0,2.5149912E-1,4.268713E-1,5.255537E-1,1.8682504E-1,1.0536087E-1,0E0,0E0,0E0,0E0,5.217064E-2,7.4625134E-2,0E0,1.3836388E-2,0E0,0E0,0E0,0E0,5.7931233E-5,0E0,0E0,0E0],"parents":[2147483647,0,0,1,1,2,2,4,4,6,6,7,7,8,8,9,9,10,10,15,15,16,16,18,18,23,23],"right_children":[2,4,6,-1,8,-1,10,12,14,16,18,-1,-1,-1,-1,20,22,-1,24,-1,-1,-1,-1,26,-1,-1,-1],"split_conditions":[-4.3333527E-1,-7.6163536E-1,-7.6163536E-1,-1.8036371E-2,-7.634062E-1,6.8755555E-3,1.701874E-1,-2.3520553E-1,1.1714858E0,-1.3373274E0,2.795942E-1,1.1178969E-2,-2.2090634E-2,4.5065094E-2,2.5787242E-3,-6.91815E-2,-8.1939244E-1,9.568114E-3,-9.1662717E-1,2.2217145E-3,-8.407557E-3,-2.6586312E-3,-2.0619197E-2,-7.363313E-1,-6.170985E-3,-9.277067E-5,-6.785538E-4],"split_indices":[20,8,26,0,26,0,16,2,8,16,16,0,0,0,0,2,2,0,8,0,0,0,0,2,0,0,0],"split_type":[0,0,0,0,0,0,0,0,0,0,0,0,0,0,0,0,0,0,0,0,0,0,0,0,0,0,0],"sum_hessian":[2.7E1,9E0,1.8E1,2E0,7E0,4E0,1.4E1,2E0,5E0,9E0,5E0,1E0,1E0,4E0,1E0,3E0,6E0,1E0,4E0,2E0,1E0,1E0,5E0,2E0,2E0,1E0,1E0],"tree_param":{"num_deleted":"0","num_feature":"36","num_nodes":"27","size_leaf_vector":"1"}}]},"name":"gbtree"},"learner_model_param":{"base_score":"[1.969811E-2]","boost_from_average":"1","num_class":"0","num_feature":"36","num_target":"1"},"objective":{"name":"reg:squarederror","reg_loss_param":{"scale_pos_weight":"1"}}},"version":[3,1,1]}